[[[ 0.1436145   0.36392194 -0.35958698  0.2831421   0.42979705
   -0.17651269]]

 [[ 0.41274172  0.5671656   0.31445003  0.40183255  0.23169805
   -0.06156456]]]

[[[ 0.37006384  0.33062437  0.3566598  -0.17446826 -0.11316572
    0.24071108]]

 [[-0.3338682   0.2797875   0.4647417  -0.1130608   0.47212687
    0.58496   ]]]



[[[-0.0035638   0.01857955  0.00345579 -0.03389946  0.08544827
   -0.02641048  0.04425801 -0.07087898 -0.13192365  0.09264576
   -0.02786475 -0.10374412  0.03902938 -0.08340353  0.03945175
   -0.05052324]
  [-0.11797303 -0.02329039  0.06379768 -0.05451531 -0.12430871
   -0.0365213   0.10436592 -0.05729429 -0.15864901  0.09168959
    0.07641833 -0.01234336 -0.10829927 -0.02704247 -0.03722082
    0.01436257]
  [-0.04601551  0.00257322 -0.04086462  0.08437762 -0.02252564
    0.04007699 -0.01719958  0.05571664 -0.00258061  0.09509603
   -0.02107869 -0.09936313 -0.05063814  0.11793681 -0.03177359
    0.01895607]
  [-0.10492108  0.04813968 -0.01049864 -0.10914589  0.04594256
   -0.09280792  0.01913452 -0.08232185 -0.18332808 -0.11007209
   -0.07392413 -0.06140407 -0.10403623 -0.01369665  0.01005093
   -0.02693376]
  [ 0.00143564 -0.00890596 -0.04392277  0.06659199  0.03001344
   -0.03232233  0.02588773 -0.10455106 -0.05212781  0.08243583
   -0.00429499  0.06454296 -0.05191305  0.02679621  0.1227518
   -0.01257837]
  [ 0.03702086 -0.10714524 -0.09415971  0.10784275 -0.05503235
    0.01272738 -0.0759724  -0.10929257 -0.1628261   0.01063592
    0.11069365 -0.01473803 -0.0439727  -0.018928   -0.03784878
    0.03388617]]

 [[-0.03388723 -0.10322429  0.02965917  0.02902652  0.02849535
    0.05630604  0.00771018 -0.0909115   0.0211713  -0.10242914
   -0.07849992  0.03556312 -0.02888007 -0.00339559  0.04350178
    0.00254427]
  [ 0.02261855 -0.00056578  0.0482628   0.00982437  0.08782158
   -0.02332584 -0.00964064  0.01223568  0.07469387  0.03350483
    0.013826   -0.00924238  0.01318136  0.08874564  0.11339077
   -0.04193723]
  [ 0.07047218 -0.03286274 -0.0725731  -0.03734749 -0.01097541
    0.08981974  0.03152733 -0.10110985  0.09169925  0.05232458
    0.07260446 -0.04291778 -0.0743611   0.15854089  0.10412103
   -0.09745354]
  [-0.01647278  0.04451458  0.08995017  0.00278893  0.08245961
    0.00250543 -0.14761928 -0.09929483 -0.07497951  0.07117379
   -0.17280637 -0.07133505 -0.06312656  0.04838715  0.1373576
   -0.01122387]
  [-0.00831064  0.03368143  0.10311872  0.0018052  -0.03596305
   -0.08747493  0.10789765 -0.08854717  0.00225248  0.08775192
   -0.12911636 -0.06091697 -0.01926733  0.06354325  0.02898232
   -0.11729354]
  [ 0.00105583 -0.11790378 -0.10693043 -0.0555115  -0.0526374
   -0.08234831  0.02514152 -0.10504694  0.11285714 -0.04811779
    0.12562838 -0.05647028  0.01622139 -0.01625468  0.17841464
    0.03803123]]

 [[ 0.04430341 -0.09133446 -0.04553946  0.05802596  0.10043234
    0.07965084 -0.09198888 -0.0572704   0.04363514  0.02729117
    0.00436091  0.0708584  -0.04392413  0.07944053  0.1134529
   -0.00698917]
  [ 0.04634985  0.04582123  0.10111883 -0.08552604 -0.08483451
    0.03186444 -0.06383203 -0.10725817 -0.02085046  0.03219764
   -0.07341757  0.06258365  0.11041132 -0.03309292  0.12330449
   -0.16731341]
  [ 0.10718783 -0.12315805  0.06023034 -0.10278253  0.07464673
   -0.10342813  0.07147487  0.06330018  0.01672624  0.16723046
    0.04200613  0.04250414 -0.01955394 -0.01042608  0.04052331
   -0.12201705]
  [ 0.1309729  -0.10915505 -0.0246137  -0.03199594 -0.01515974
   -0.01972485 -0.05643483 -0.0763305   0.04561497 -0.03697058
   -0.16080973 -0.1062829   0.03089115 -0.00732193  0.01324681
   -0.04987596]
  [ 0.10794945  0.0477072  -0.02354734 -0.0258382   0.02553557
   -0.07764028  0.07306517 -0.0237955   0.10899024  0.00785614
   -0.04875232  0.03700398 -0.0198634   0.13157587  0.04753714
   -0.03712781]
  [ 0.02569527 -0.02409061 -0.03486929  0.00062709 -0.06572397
   -0.03330593  0.05366927 -0.02240564  0.12750772  0.11256152
    0.06235347  0.04012385  0.16251194  0.11069326  0.18339288
   -0.01472298]]

 [[ 0.04052582 -0.06068428 -0.079074   -0.01674595  0.06587058
    0.09859575  0.09218176  0.0603567   0.0348563   0.12820373
   -0.16681425 -0.1593104   0.10668234 -0.01022417  0.07189577
   -0.13340852]
  [ 0.07664581 -0.03278955 -0.12095668 -0.06436528  0.0421331
   -0.05935347  0.02077765  0.1784999   0.00921614  0.1669355
   -0.05262871 -0.111974    0.09878888  0.11774116  0.01634674
   -0.13129835]
  [ 0.09458657  0.0168023   0.02954113  0.05270432 -0.04352268
   -0.00362564 -0.03996366  0.05203832 -0.14068669  0.15660194
   -0.06922425 -0.12363973  0.02466033  0.18766518 -0.05420648
   -0.06945769]
  [-0.02428818 -0.0825752   0.02959689 -0.10130429  0.1118249
    0.05573303 -0.12232229  0.07793757 -0.01155836 -0.01684698
   -0.19732487 -0.1335168  -0.06866645 -0.02045539  0.13124456
    0.02515004]
  [-0.02746923  0.02422316 -0.11843124  0.01775388  0.03390756
    0.02249532 -0.1161723   0.07678503  0.01464969  0.0978468
   -0.17665543 -0.12426352  0.01057075  0.05688524  0.08356005
   -0.08326812]
  [ 0.12774996  0.04317392  0.12106355  0.09117703  0.01948413
   -0.01009843 -0.0413578  -0.04050105 -0.134139    0.2050388
   -0.06939735 -0.16980252  0.0230409   0.17588586  0.11642247
   -0.02295188]]

 [[-0.01375384 -0.02375402  0.0716093   0.0760548  -0.10127988
   -0.03119779 -0.00963298  0.05251004 -0.00356677  0.1854357
   -0.15575553  0.00308468 -0.11066286  0.05467017 -0.05500938
   -0.08478637]
  [-0.10872903 -0.11392047 -0.02304153  0.07411695 -0.10431831
   -0.0637067   0.00867142  0.14282356 -0.05637499  0.17374362
    0.0245223   0.00063376 -0.20852584  0.09855486  0.12194556
   -0.04210868]
  [ 0.00726407  0.07652158  0.00820581  0.0045409  -0.09460855
   -0.02911913  0.00155249  0.08149077 -0.18834764  0.05430098
    0.04801939  0.14694248 -0.02599142  0.11980073 -0.00239397
   -0.08045156]
  [-0.2003547  -0.16540195  0.08309554  0.05000591 -0.0957954
   -0.03271808 -0.14900231 -0.0075605  -0.08073758  0.1751643
   -0.13354342 -0.02383464 -0.07185926  0.0062155   0.09153827
    0.10927064]
  [-0.03320047 -0.10429546 -0.08541939 -0.07304719 -0.02104642
   -0.0139424  -0.19080876  0.0856214   0.04258851  0.06127854
   -0.13161494 -0.10287596 -0.07359557  0.14687853 -0.02717862
   -0.0839223 ]
  [-0.0896859   0.00961118  0.12567244  0.10397147  0.10253448
    0.00624932  0.06585343 -0.05605762 -0.13020834  0.13269104
   -0.01533387 -0.04533052 -0.04946322  0.06837274 -0.12973757
   -0.05024309]]][[[-0.12753291  0.09797486  0.07559219 -0.01099712  0.07410849
    0.12778607  0.08826847  0.01831703 -0.06845425  0.05294698
    0.03594562  0.01216422  0.05068453  0.05105202 -0.04663156
    0.12968415]
  [-0.00344181  0.08052093 -0.09107904  0.0070639   0.00453754
    0.00611621  0.056357    0.07997093 -0.18699168  0.1222092
    0.05952367 -0.01156439 -0.04212034 -0.01100229  0.0213199
    0.07611597]
  [ 0.00797021  0.06806044 -0.10752356 -0.00361588 -0.00969184
    0.0377534   0.05523692 -0.06191118 -0.10065377  0.0667895
    0.05292068 -0.01410513  0.0358051   0.04073199 -0.11572421
    0.14484487]
  [ 0.02707165 -0.08578876 -0.06159177 -0.03345378 -0.02051861
    0.09979454  0.06844591 -0.03481823 -0.11216382 -0.01211639
    0.03294578  0.05318056 -0.07377251  0.13877192  0.09388531
    0.14987072]
  [-0.00382781 -0.00069249 -0.12543899  0.0393985  -0.01510746
    0.02494778  0.04586416 -0.03596224 -0.08858905  0.08131247
   -0.04948518  0.01591177 -0.00249882  0.06845121 -0.07657392
    0.02339967]
  [ 0.05830154 -0.10235947 -0.07276212 -0.04048218 -0.10561291
    0.04057221  0.03485859 -0.03123897 -0.08642123 -0.03840353
   -0.12555659 -0.11141965 -0.02466078 -0.12195124 -0.05486342
    0.14911123]]

 [[-0.10914417 -0.05582085  0.01210045  0.09409228  0.01468039
    0.01817726  0.02471399 -0.05604206  0.05821185  0.08006085
    0.00496448 -0.04698026 -0.02133614  0.12860695  0.12700707
    0.13597901]
  [ 0.09595314 -0.04174972 -0.17156033  0.03704185 -0.11600753
   -0.00700084  0.04031596 -0.06562499  0.04822684 -0.06618664
    0.06770887  0.11806066 -0.04109021  0.11458491  0.07187707
    0.09054077]
  [-0.05710551 -0.12742236 -0.1536792  -0.17889574 -0.06942175
   -0.05610483 -0.00868579 -0.17188069  0.2146707  -0.00311699
    0.13231122 -0.02873989  0.04178918  0.05872538 -0.20254827
   -0.04633413]
  [-0.09852052  0.07421296  0.03047714 -0.09278966  0.13156791
    0.11925199  0.10159332 -0.07143277  0.13279305  0.0267244
    0.08150608 -0.07171284 -0.09250499  0.18731824  0.17322995
    0.18945707]
  [-0.09039871 -0.06837386 -0.14482348 -0.12993252 -0.01794061
    0.00603561  0.07361957 -0.01840615  0.0598373  -0.05790473
    0.13212217  0.08298934  0.0244719   0.17058839 -0.11966598
   -0.01757194]
  [-0.11231063 -0.1766015  -0.01341451 -0.12674959 -0.07561938
    0.01772585 -0.06639127 -0.06957491  0.01118917 -0.22215241
    0.02795431  0.02907306  0.05684974 -0.06834064 -0.22576849
   -0.01987447]]

 [[ 0.06790177 -0.04448095  0.03639358 -0.01299176 -0.0696132
   -0.02680484  0.10452095 -0.12969548  0.11219871 -0.05154172
    0.07171721 -0.08915404  0.04433152  0.11955599  0.0288834
   -0.02247727]
  [-0.04254997  0.00688024  0.04400878 -0.07230083 -0.11249766
   -0.04347446  0.12126359 -0.0819902   0.1408101  -0.05670336
    0.1305679  -0.08649089  0.05654881  0.06673492 -0.13741976
    0.07597332]
  [ 0.07329299  0.05258238 -0.01017789 -0.16446306 -0.09100722
   -0.0750147   0.08468784 -0.14355041  0.04887588 -0.10629715
    0.01911022 -0.01235285  0.03037013 -0.01566182 -0.15201728
   -0.02029352]
  [ 0.02031632 -0.10009513  0.05610302 -0.06993045  0.04485538
    0.04094165 -0.00953262 -0.05749497  0.13751385  0.21149303
    0.13478614 -0.13390951 -0.07962012  0.1478696   0.0219352
    0.08776093]
  [-0.02994121  0.0198093  -0.03240936 -0.06809738  0.00083335
   -0.11096318 -0.03684232 -0.00668748 -0.00801743  0.03627804
    0.03848     0.05132676  0.08449931  0.05540551 -0.12205997
    0.03256835]
  [ 0.07132106  0.05154078  0.05343399 -0.17385624 -0.0214188
   -0.09517867 -0.06510987 -0.11035006 -0.00947225 -0.14164288
    0.1597748  -0.13016243 -0.01233254  0.14288029 -0.17109662
    0.05709134]]

 [[ 0.07551696 -0.00644195 -0.07733347 -0.08512641 -0.02621524
   -0.167852   -0.05359169 -0.05463455  0.00586974 -0.01033479
   -0.06830597 -0.12026333  0.07140748  0.0898667  -0.09756607
   -0.0617694 ]
  [ 0.02461495 -0.02464534  0.11097477 -0.07018176 -0.05225231
   -0.16916955 -0.02048532  0.08627676 -0.07785059  0.02942006
    0.07008778 -0.07562477  0.03143959  0.07633675  0.03029394
   -0.13535519]
  [-0.04421809  0.07023589  0.027246    0.07180625 -0.07542671
   -0.10639429  0.05762053  0.1081153  -0.11418393 -0.08653128
    0.1100659  -0.01447323  0.08888851  0.03777353  0.00782332
   -0.05897301]
  [ 0.13011548  0.01797258 -0.00482643  0.14351234 -0.03287083
    0.03853718 -0.07811408  0.13315986 -0.06019839  0.09157595
    0.05438418  0.03902777  0.07679489  0.13191587  0.05626332
   -0.16234528]
  [ 0.12860863  0.10490523  0.07917806 -0.01011554 -0.10840949
   -0.18398428  0.05715014  0.11890115 -0.13759592  0.15774761
    0.12187988 -0.01630017  0.0461373   0.21179105 -0.16800186
   -0.08783537]
  [ 0.12235729 -0.02771013  0.03337433 -0.07291073  0.03482556
   -0.08922099 -0.00688855  0.01779222 -0.1984197  -0.10079165
   -0.05434861  0.00428369 -0.02133686 -0.0545622  -0.15659182
    0.11825261]]

 [[ 0.10052717 -0.0204461   0.04341377  0.01123198 -0.02245596
   -0.14558777 -0.14714284  0.02556252 -0.10646972  0.07582667
   -0.04124091  0.03205372  0.00259736  0.08567322 -0.11993515
   -0.19060409]
  [ 0.08765924  0.07272507  0.06105311  0.10180964 -0.09404567
    0.04968036 -0.02720922  0.05791457 -0.15074955 -0.11748306
   -0.02268584 -0.04024501 -0.05785903  0.06076762 -0.02002782
   -0.23629959]
  [ 0.08070754  0.02685438 -0.00264459 -0.00575661 -0.03989626
   -0.0715275   0.01197084  0.05975793 -0.07817718 -0.20735851
    0.08830372 -0.02918787  0.00133002  0.03260641  0.04284826
   -0.14839359]
  [-0.02113981 -0.0529369   0.03123397  0.11985622  0.04473286
    0.06469417 -0.09999892 -0.06955934 -0.14609492  0.06612749
   -0.01550472  0.02180054  0.09670186  0.24360634 -0.11239343
   -0.07873713]
  [-0.01003464  0.01981173  0.13141046  0.131569   -0.01555023
    0.07211072 -0.02953826  0.18126008 -0.12394069 -0.09142095
    0.07694797  0.01930907 -0.09703827  0.15305816 -0.10397955
   -0.22604764]
  [ 0.02999668  0.01445849  0.02697479  0.09638264  0.10481705
    0.06045008  0.09562013  0.03138959 -0.24495423 -0.26497722
   -0.0876136  -0.12416173  0.05270464 -0.04680365  0.017191
   -0.20149201]]][[[ 0.03743552 -0.07107908 -0.00804749  0.10693059 -0.10277848
    0.06502576  0.00937642 -0.05807336 -0.20867443  0.00928114
   -0.02827911  0.02303802 -0.09761053 -0.01471021 -0.16743112
    0.08472934]
  [ 0.01935836  0.02121378  0.08177898  0.14166369  0.03925719
   -0.05575447  0.11944066  0.0245854  -0.03106434  0.02634917
    0.04175814 -0.01423752  0.0887962  -0.01577936 -0.09272686
   -0.02955622]
  [-0.10742465 -0.01971083  0.05970681  0.00932662  0.0708577
    0.01135274 -0.00432034 -0.04057749 -0.04940785 -0.1096817
   -0.14068645 -0.00102306 -0.01543276 -0.00234948 -0.08286352
   -0.10745486]
  [-0.08618902  0.01170095 -0.03689367 -0.02768572  0.07956285
    0.14113636 -0.02646597  0.06148103 -0.04276718 -0.11970064
   -0.03001807 -0.00998043  0.06196472 -0.08030609 -0.12656023
    0.01660935]
  [-0.0749819  -0.01569938  0.06117558  0.03522612  0.02651136
    0.01517737 -0.03631018  0.09308077 -0.03328989 -0.09048011
   -0.09271173 -0.06537818 -0.03825585 -0.07814386 -0.1820477
   -0.0724097 ]
  [ 0.08274633 -0.06428637  0.13511871 -0.00334774  0.02652185
   -0.07525094 -0.0850582  -0.04930158  0.05857881 -0.12272897
   -0.11710789 -0.00226358  0.01143226 -0.14489082  0.0505134
   -0.03215267]]

 [[-0.04675933 -0.01697402 -0.12378787  0.02419279  0.03496064
    0.01528224 -0.01109851 -0.04020463  0.11660545 -0.02118647
    0.06852703  0.00898123  0.01983758 -0.08285912 -0.12632827
    0.08125151]
  [-0.01279322 -0.0269515  -0.02853181 -0.15721202  0.00934701
   -0.08948199  0.10212182 -0.06666753  0.07348493 -0.21594906
   -0.06130263  0.09463484  0.08934633  0.03356805 -0.25525588
   -0.05160827]
  [-0.14631984 -0.02361798 -0.05544176 -0.18752468  0.08841594
   -0.0727905   0.01533034 -0.11368068  0.09986655 -0.22147739
   -0.03273433 -0.00174382  0.10648409 -0.16476882 -0.05337617
   -0.0166889 ]
  [ 0.07225579 -0.14881687  0.01029133 -0.08424991 -0.13325173
    0.03791586 -0.03195856 -0.03881504  0.11743275 -0.0067865
    0.1337918  -0.10813639  0.01598691 -0.01019773 -0.3217276
    0.09558624]
  [-0.09640069 -0.12771133 -0.15428258 -0.00549098 -0.10584231
   -0.06172832  0.10724988 -0.07509089  0.13875382 -0.21690024
    0.01153591  0.0631988   0.07369912 -0.01065242 -0.1898391
    0.06129912]
  [-0.1706263  -0.07018957  0.0419618  -0.14270368  0.14781818
   -0.07925996 -0.08019958 -0.02871428  0.02680043 -0.04274229
    0.00141917 -0.11534619  0.07617805 -0.18519562  0.0512127
    0.09043923]]

 [[ 0.04432702  0.02162053  0.01439577 -0.22683667  0.00769349
   -0.12569691  0.04585113 -0.09520743  0.05184497 -0.12502024
    0.03499746 -0.02511986  0.04578738 -0.04693169 -0.07276566
   -0.06479514]
  [ 0.00846428  0.1023447  -0.11069573 -0.14699596  0.0643542
   -0.11817528  0.01323451 -0.21492241  0.10615314 -0.28738394
    0.0447653  -0.03563993  0.03874572 -0.05098772 -0.11703012
    0.03393286]
  [ 0.04216326  0.20210592 -0.10303618  0.03333033  0.02862763
   -0.10584348  0.01430568 -0.12648697  0.02966894 -0.11226418
   -0.09182865  0.02047086  0.11282955 -0.16339536  0.02442773
    0.15828739]
  [ 0.01313958 -0.09026746 -0.06238886 -0.22076285 -0.08972993
   -0.06016516 -0.01379161 -0.06106367 -0.04957167 -0.2706614
    0.11501855 -0.12520695  0.00820497  0.03392623 -0.1521017
    0.17018238]
  [-0.05551767  0.10285527 -0.02344284 -0.24661195 -0.06116957
   -0.04292543  0.11157005 -0.11240305  0.0110788  -0.313984
    0.11804035  0.02706853  0.01940473 -0.10412871 -0.02450886
    0.07599507]
  [-0.11754495  0.09186099 -0.08784704  0.03756058  0.05993237
   -0.12811902  0.14035572 -0.11490387 -0.14521392 -0.19250838
    0.06299798  0.03684262 -0.03024628 -0.2185098   0.08262552
    0.10408235]]

 [[ 0.01655047  0.21095717 -0.06272492 -0.17863762  0.14594458
   -0.19106713 -0.04632298  0.00469323 -0.13501711 -0.29336682
    0.02347283 -0.04041938 -0.05654536 -0.00443527 -0.00729914
   -0.04422173]
  [ 0.07627808  0.19086733 -0.08018848 -0.11712349 -0.01971202
   -0.15256287 -0.02701915 -0.02891578 -0.26199508 -0.3463052
    0.0851697  -0.10995769 -0.00980925 -0.02465171 -0.01004976
    0.10453033]
  [-0.03488509  0.09153948 -0.11685434 -0.12035478  0.1766103
   -0.03742804  0.07644682  0.1636997  -0.12951055 -0.22709851
   -0.03666    -0.1048877  -0.009548   -0.28081265  0.08519124
   -0.00401549]
  [ 0.05777778 -0.02658038 -0.04374705 -0.10317975  0.09784165
   -0.16528882 -0.00993622  0.00081076 -0.26456472 -0.09991511
    0.09473505 -0.15070131 -0.06831802 -0.08900504  0.04361717
    0.05190104]
  [ 0.07536163  0.01029878 -0.07808937 -0.12416193 -0.02710117
   -0.06648291  0.10153564  0.09208477 -0.16375947 -0.20186807
    0.0044911  -0.02303661 -0.07397996 -0.18224663 -0.0995434
    0.10518287]
  [-0.04457327  0.02155694 -0.15981667 -0.15439118  0.15596242
    0.01621348  0.20519109  0.09901281 -0.20440798 -0.27365068
    0.07356129  0.07810118  0.05629402 -0.1461249   0.13617726
    0.15982597]]

 [[ 0.06680682 -0.04946116 -0.05055154 -0.00787188  0.14378817
    0.08824942  0.0100277   0.07793321 -0.10856935 -0.18871
   -0.05381348 -0.13304992  0.00436103 -0.11823725  0.12918219
   -0.06645448]
  [-0.05200546 -0.07827343 -0.16198891 -0.17697488  0.11521976
    0.0342352   0.01468527  0.08717994  0.02476453 -0.23810726
    0.12331158 -0.00060588 -0.00253078 -0.21919928 -0.03657684
   -0.16032258]
  [-0.00741896 -0.16970389 -0.08872978 -0.08482558  0.08937549
    0.14172268  0.11841089 -0.00344253  0.0238531   0.04608047
    0.07493871 -0.05390893  0.09078206 -0.03984738  0.11563642
   -0.00858207]
  [ 0.05903089  0.04254926 -0.02355359 -0.10352091  0.11113214
   -0.1029485   0.08411381  0.10314856 -0.07073346 -0.25851512
   -0.08948283 -0.14239159  0.02760552 -0.06795909 -0.0409517
   -0.15304519]
  [ 0.11133908 -0.05086751 -0.12580492 -0.20742914 -0.02034074
    0.08036786 -0.01145356  0.14250709 -0.1253471  -0.21202669
    0.13713892 -0.01303968  0.02496143 -0.13965459  0.04830822
   -0.02060412]
  [ 0.02353075 -0.08570506 -0.13537662 -0.22902524  0.07940698
    0.1992882   0.25149524  0.0359488   0.06817014 -0.0621127
   -0.03342174  0.00862145 -0.01828375 -0.11536104  0.10348156
    0.02893245]]][[[-2.50919834e-02  6.41696975e-02  7.23718479e-02 -5.37594333e-02
   -4.06737886e-02  2.46641517e-04 -3.84739116e-02  9.83033516e-03
   -5.67047335e-02  7.51159415e-02 -1.40201360e-01  1.84136964e-02
    9.55300778e-03 -1.42563969e-01  9.18741599e-02 -1.06579006e-01]
  [-1.41392723e-01 -1.26456186e-01  6.41911924e-02  1.83808044e-01
    6.52818605e-02 -9.75361243e-02 -1.67661309e-02  2.44395640e-02
   -4.85716723e-02  7.22295195e-02 -8.28273073e-02  1.03713132e-01
    7.29926899e-02 -1.35908291e-01  1.17293417e-01 -7.58631378e-02]
  [-1.00888491e-01  4.78166938e-02 -6.26478419e-02  3.70123461e-02
   -9.10507217e-02 -1.05696404e-02 -3.39247771e-02  8.05488378e-02
    3.43783572e-02  8.64355043e-02  2.29780097e-02  8.93047154e-02
   -6.23702742e-02  3.99767272e-02  1.23628363e-01  1.18344113e-01]
  [-1.86563563e-02 -9.98914763e-02  8.55088010e-02  1.19640790e-01
    7.71631598e-02 -5.21011204e-02 -1.75315961e-02  6.50309213e-03
   -8.51017088e-02 -6.61083832e-02 -8.41582417e-02 -8.83988738e-02
    4.35678773e-02 -1.24985904e-01  4.68653701e-02  4.25209962e-02]
  [-1.02057680e-01  3.43301380e-03  1.56870142e-01  1.11510418e-01
    7.48025477e-02 -9.77321193e-02  1.14738652e-02  9.89498422e-02
    1.67230144e-02 -2.66342368e-02  1.90392230e-03 -5.87436259e-02
    7.63996691e-02 -1.06532261e-01  5.95960692e-02 -9.88832023e-03]
  [-9.11464691e-02 -2.27030218e-02 -2.03319713e-02  3.24387895e-03
   -4.61596660e-02  2.57687680e-02 -1.49325252e-01  1.29130587e-01
   -4.26360965e-03  4.93307151e-02 -9.14979130e-02  5.91716133e-02
    4.50218879e-02 -3.84407602e-02  2.75379419e-03 -3.52312475e-02]]

 [[-1.02742136e-01 -4.47277501e-02  8.46831799e-02 -5.82976714e-02
    4.90673445e-02 -7.18987137e-02 -3.60370241e-02 -9.81506482e-02
    2.00808197e-02 -6.50241151e-02 -7.32045397e-02  7.28088394e-02
    6.08699881e-02  5.77335879e-02  1.72194347e-01  5.34516387e-02]
  [-1.32081792e-01  9.67365801e-02 -6.37138961e-03  1.22007750e-01
    7.17004612e-02 -1.31690249e-01  2.02692132e-02 -1.15054727e-01
    1.36561036e-01 -5.07630967e-02 -1.62419509e-02 -7.97093585e-02
    1.37236882e-02  1.06334407e-02  1.12262256e-01 -2.35777590e-02]
  [ 1.41762057e-02 -1.12220906e-02 -8.65792111e-02  3.11682913e-02
    2.08623838e-02 -1.46513686e-01 -7.61316791e-02 -9.49905962e-02
   -1.06482739e-02 -5.69387749e-02  6.43816665e-02 -7.95790777e-02
    5.10005094e-02  4.40173559e-02  1.34356841e-01  6.64895400e-02]
  [ 2.43356489e-02 -1.69143930e-01 -3.64734828e-02  4.78413291e-02
    4.97965403e-02 -2.23844990e-01 -6.18936075e-03 -8.37245360e-02
    8.08409825e-02 -4.56792712e-02  6.18050881e-02 -3.56629789e-02
    1.08643677e-02  1.03625227e-02  8.63663182e-02 -8.95470157e-02]
  [-6.72495365e-02  1.52205285e-02  1.32038474e-01  1.56835571e-01
    1.81559056e-01 -3.43656912e-02  1.17900223e-02 -1.81911528e-01
    4.76239901e-03 -1.35818332e-01 -6.53611347e-02 -4.94133495e-02
    7.57486075e-02 -5.90010844e-02 -1.03285699e-03 -5.99450320e-02]
  [ 4.39029858e-02  1.58261284e-01  1.35828227e-01  1.71623170e-01
    1.38373882e-01 -2.04199087e-03 -8.11057538e-02 -4.43642512e-02
   -4.85245474e-02 -9.51829255e-02 -8.74635428e-02  1.70440767e-02
    6.86618835e-02 -7.97714014e-03  1.33566216e-01  8.23215321e-02]]

 [[-7.97908381e-03  1.86741456e-01 -1.58326015e-01 -5.07052150e-03
    1.77828476e-01 -1.20197885e-01  2.98179742e-02 -6.86479881e-02
    5.87964132e-02 -1.10554159e-01  5.67873940e-02 -1.64762978e-02
   -8.75594467e-02 -1.34007409e-01  2.13558733e-01  6.38794973e-02]
  [ 5.24591580e-02  1.92845806e-01 -2.80067883e-03  2.32966859e-02
    1.43982723e-01 -5.28135300e-02 -4.45231050e-02 -2.93191262e-02
   -1.41896829e-01 -3.13737690e-02 -1.35476395e-01  1.27323061e-01
    2.49515940e-02 -1.11046948e-01  9.09276679e-02  7.70018026e-02]
  [-1.16922498e-01  2.23050162e-01 -1.64558031e-02  1.41591728e-01
    4.05145437e-02  1.08489051e-01 -2.04689614e-02 -1.63993554e-03
   -1.23011597e-01  5.27315810e-02 -9.07090157e-02  2.84249578e-02
    1.50836095e-01 -5.22773303e-02  7.43554085e-02  1.12900343e-02]
  [-9.99055989e-03  1.42903347e-02 -1.66948691e-01 -5.59590645e-02
    1.76277444e-01 -1.13536879e-01  1.30455136e-01 -6.93998262e-02
   -1.87557593e-01 -1.93959743e-01  8.62623677e-02  2.66340580e-02
    1.10742755e-01 -2.49101609e-01  1.48806408e-01  1.35324538e-01]
  [ 2.84297988e-02  5.40479161e-02 -8.91169682e-02  8.29890892e-02
    1.59144104e-01 -1.38201499e-02 -4.31570671e-02  2.16626842e-02
   -1.17197469e-01 -1.24499127e-01 -7.25843832e-02  1.52566940e-01
    1.25822484e-01 -1.83391139e-01  5.88306189e-02  1.03960194e-01]
  [-1.15839981e-01  1.53289348e-01  6.43860996e-02  1.59990236e-01
   -2.71589980e-02  9.39527228e-02  5.97771956e-03 -2.73572169e-02
   -1.29945740e-01 -3.94321941e-02  3.18038017e-02 -3.59240025e-02
   -1.33195985e-02 -9.67858955e-02  1.26358718e-01 -6.26686914e-03]]

 [[ 7.91126564e-02  1.55524969e-01 -1.41270816e-01 -1.41356252e-02
    4.82430980e-02  4.73596975e-02  3.50225866e-02  1.10807158e-01
   -2.16224372e-01 -1.06205568e-01  6.32727221e-02  6.57291189e-02
    9.12473053e-02 -9.60817188e-02  1.30611226e-01  1.13177851e-01]
  [ 6.70695826e-02  4.90135923e-02  5.70114644e-04 -4.30847295e-02
   -5.74974802e-05  1.40010312e-01  1.05018973e-01  1.31611034e-01
   -2.08416954e-01 -5.12333773e-02  9.56814587e-02  1.28121331e-01
    8.96965861e-02 -2.26109818e-01  2.03845464e-02  5.94825819e-02]
  [-6.70773461e-02  5.92451580e-02  2.04416714e-03  9.22961682e-02
   -1.07813105e-01  1.15575440e-01  2.89858412e-03  6.58526421e-02
   -3.69009674e-02 -3.82057838e-02  3.14737149e-02  6.31430298e-02
    3.94526906e-02 -2.52372008e-02 -5.45245893e-02  4.99804951e-02]
  [ 9.45556387e-02  1.28799021e-01 -4.23994884e-02  2.85130255e-02
    1.46847114e-01  4.38697226e-02  1.89677402e-01 -3.60928513e-02
   -2.15107545e-01 -8.15816000e-02  1.04782484e-01  3.28714289e-02
    1.65948477e-02 -3.06192547e-01  6.53568581e-02  1.64034605e-01]
  [ 1.30834937e-01 -3.62914987e-02 -7.49031082e-02  5.02521135e-02
   -4.90197204e-02 -3.00470386e-02  1.29251629e-01  5.72717562e-02
   -1.80651158e-01 -5.15055358e-02  5.81853241e-02  4.83075120e-02
    7.62353912e-02 -9.79566798e-02  1.54133588e-01  1.59355346e-03]
  [ 7.03977197e-02 -1.57888234e-01  1.33827284e-01  1.46269187e-01
    2.05456447e-02  8.32731798e-02 -8.16850960e-02  1.18396372e-01
   -1.14968948e-01  6.10879213e-02  3.83806787e-02 -4.24143719e-03
   -4.73265536e-02 -4.48502460e-03 -3.49532105e-02 -3.62872221e-02]]

 [[-5.17858416e-02 -1.10110328e-01  7.76249692e-02 -1.40548185e-01
    5.81410900e-02  4.03709002e-02  1.03251219e-01  1.99046910e-01
   -6.50332719e-02  2.17673811e-03  2.84934305e-02 -4.45317775e-02
   -3.99328768e-02 -8.20383132e-02 -5.29434383e-02  2.07090192e-02]
  [ 1.11139365e-01 -9.24540907e-02 -1.00550003e-01 -1.02546252e-01
   -1.24334216e-01  1.30951405e-01  3.26168314e-02  1.14721172e-01
    1.14336692e-01 -4.77247685e-02  1.58017024e-01  1.08430609e-01
   -3.34931053e-02 -3.32139358e-02  7.52496533e-03  4.97436151e-03]
  [-1.05890028e-01 -1.78598672e-01  1.28944159e-01  1.09618336e-01
    9.48126689e-02  6.12943135e-02 -3.45877395e-03  3.75055559e-02
    2.03817725e-01  3.31939533e-02 -2.22116597e-02  5.89484200e-02
    4.41403352e-02  8.23051557e-02 -1.62310954e-02  6.56154603e-02]
  [-8.22196752e-02 -1.65170088e-01  1.94415953e-02 -1.16631620e-01
   -9.49753299e-02  2.05600500e-01  1.66862071e-01  1.38943214e-02
    3.23255472e-02 -1.55431237e-02  1.32879242e-01 -1.24064442e-02
    4.81433719e-02 -1.05939448e-01 -6.40114630e-03  6.73596337e-02]
  [ 2.79970430e-02 -6.16147667e-02 -1.35133695e-02 -9.80797410e-02
   -2.55054962e-02  8.48378837e-02  1.24198757e-01  5.42907491e-02
    1.12527311e-02  3.27126160e-02  9.31871384e-02  4.29763533e-02
    3.54835503e-02 -2.48283390e-02 -1.85850710e-02  1.11455075e-01]
  [-2.61440221e-02 -7.98163787e-02  9.22181755e-02  1.31874293e-01
    1.44225247e-02  1.24306433e-01  1.14696302e-01 -7.91605264e-02
    5.39615415e-02  1.58030614e-02 -1.31566008e-03  2.61809919e-02
    1.29486108e-02 -3.91521165e-03 -1.04471684e-01  1.78094283e-02]]][[[-9.75898057e-02 -7.29361326e-02 -3.08287982e-02 -2.97952965e-02
   -2.46798992e-02 -7.00585470e-02 -6.31678328e-02  8.65637616e-04
   -2.56592892e-02  2.34426721e-03 -1.33372307e-01  3.00579499e-02
    1.88877098e-02  1.09036118e-02  3.46690230e-02  7.82377049e-02]
  [-4.67701778e-02  1.28013464e-02  5.68566509e-02  7.15347528e-02
    2.59811077e-02 -6.98034912e-02 -7.64102787e-02 -8.95540267e-02
   -1.93970893e-02  1.87555104e-02  1.62584428e-02  1.15898766e-01
   -8.05431530e-02  7.10987067e-03  1.14888050e-01  8.86508897e-02]
  [-1.08482748e-01  7.00214282e-02  4.11143191e-02 -5.54580167e-02
   -1.38002679e-01  1.15829311e-01 -1.43323481e-01 -1.18790321e-01
    1.37936413e-01  1.36444628e-01 -9.47774737e-04 -8.14048499e-02
   -2.05602705e-01  1.27922952e-01 -6.55662194e-02  1.13702834e-01]
  [-1.29523680e-01 -3.57164517e-02  9.21572819e-02  1.72006354e-01
   -2.13970803e-02 -5.66094145e-02 -1.53327510e-02 -6.10427484e-02
    8.16311538e-02 -1.93951074e-02  2.64167711e-02  1.23456210e-01
    7.36555383e-02  1.01069575e-02  1.49449334e-01  3.80795542e-03]
  [-6.61848346e-03  8.16642120e-02  8.12213942e-02  1.19792141e-01
   -2.45821066e-02 -9.43604931e-02 -8.80827904e-02 -4.34644520e-03
    1.43117547e-01  1.34714872e-01 -6.52854368e-02  1.14950329e-01
   -1.26417726e-01 -4.11237217e-02  1.01460572e-02 -5.15810912e-03]
  [ 7.30698407e-02  1.45267084e-01 -4.15626988e-02 -4.24992898e-03
   -9.75616276e-02  7.51661286e-02 -9.69684422e-02  4.01246436e-02
    1.25083148e-01  5.14727235e-02 -3.17253880e-02  4.75312732e-02
   -1.45907953e-01  1.37829438e-01 -1.19326385e-02  9.18974727e-03]]

 [[ 3.34259793e-02 -9.64839384e-03  2.50801481e-02 -3.79087925e-02
    1.07196912e-01  1.01819061e-01 -7.48992339e-02 -1.47251993e-01
    8.27780440e-02  9.55702737e-02  7.02525079e-02  1.43390447e-01
   -9.97946262e-02  4.07712013e-02  8.72144550e-02  8.77646580e-02]
  [-5.56763746e-02  5.75427189e-02  6.38204664e-02  2.64667384e-02
   -1.43834591e-01  5.10054156e-02 -1.96399465e-01 -1.03258349e-01
    1.40766902e-02  5.55383265e-02 -1.38837859e-01  5.83276413e-02
   -7.26184845e-02 -8.54137614e-02 -3.90728153e-02 -5.04363747e-03]
  [-1.10694453e-01  1.87500343e-01  1.26354247e-01 -2.60061454e-02
   -1.65801451e-01  4.81989905e-02 -1.43894643e-01 -4.45748959e-03
    7.90325105e-02  1.59028335e-03 -1.17537461e-01 -1.52738011e-02
   -2.66227275e-01 -9.15474608e-04  3.05831917e-02 -4.60971557e-02]
  [-8.04769713e-03  8.10936540e-02  1.19222537e-01  9.35856029e-02
    1.07457176e-01  1.96284931e-02 -1.40417695e-01 -1.90526426e-01
   -2.62983539e-03  5.44107594e-02  6.58796541e-03  4.08599488e-02
    6.72067031e-02  4.87189256e-02  7.52142966e-02  1.56529978e-01]
  [ 3.09245829e-02  8.25842991e-02  1.42465815e-01  1.22591123e-01
   -1.80085190e-04  1.39867077e-02 -1.06440395e-01 -1.00031681e-01
   -5.42573258e-02  8.87205154e-02 -1.06728472e-01 -4.88567986e-02
   -1.17842957e-01  7.73749501e-02  5.38473250e-03  1.55732939e-02]
  [ 1.02316990e-01  6.33815676e-02  1.74894616e-01 -5.86280786e-02
   -2.09376648e-01  4.82408591e-02 -2.09243491e-01 -1.07155472e-01
    2.17325129e-02  1.08388245e-01 -1.19634338e-01  1.24718053e-02
   -2.06695363e-01 -8.81127492e-02 -3.19523574e-03  4.82740030e-02]]

 [[-1.17909506e-01  4.31153513e-02 -2.37461552e-02  1.17497027e-01
   -7.62430802e-02  8.61975849e-02 -9.57471207e-02 -8.91538486e-02
   -7.65672252e-02  7.60000758e-03 -1.97315335e-01  2.28250236e-03
   -5.49662746e-02 -1.19643643e-01 -9.04961526e-02  9.55601335e-02]
  [ 3.18395742e-03  3.64671722e-02  1.73874274e-01  1.08244075e-02
   -5.78753911e-02  7.83488601e-02 -1.71826869e-01  9.66884196e-02
   -1.07097300e-02  6.83545917e-02 -4.93782535e-02  5.71859479e-02
    7.46053010e-02 -1.67163759e-01  2.52923202e-02  3.20012644e-02]
  [ 5.91501147e-02  1.36677012e-01  1.27728730e-01 -2.77149025e-02
   -9.66548547e-02  1.53990701e-01 -1.89552277e-01  1.53791562e-01
    1.70977507e-02  1.05706058e-01 -1.28943637e-01 -7.16467351e-02
   -2.15115264e-01 -5.68014607e-02 -1.30969346e-01 -9.12532434e-02]
  [ 4.99378797e-03  5.42551689e-02  1.62645176e-01  1.19208112e-01
    9.11060646e-02  4.39451747e-02 -1.06746152e-01 -1.36710212e-01
   -3.90676744e-02  3.84011818e-03 -6.63116574e-02  1.47418588e-01
    1.93536445e-01 -1.21254817e-01  7.95807913e-02 -1.00831660e-02]
  [-1.27174616e-01  4.20617461e-02  3.95028293e-02  1.48521543e-01
   -6.97976053e-02  4.85112593e-02 -2.21890271e-01  9.42781493e-02
   -1.41791165e-01  1.47447288e-01 -2.02638775e-01  1.05459072e-01
   -3.14239040e-02 -1.48657382e-01  6.10359572e-02 -6.86457828e-02]
  [ 2.95223072e-02  4.27572057e-02  2.38334939e-01  2.42898036e-02
   -1.45428479e-01  7.57545903e-02 -1.56049624e-01  8.58308226e-02
    1.27687618e-01  7.42547438e-02 -1.42805606e-01  7.25309849e-02
   -2.72020578e-01 -9.65071395e-02 -5.53247295e-02 -9.08147767e-02]]

 [[ 6.92636706e-03 -7.83202723e-02  3.48985344e-02  1.16983481e-01
   -5.15639409e-02  1.26971707e-01 -3.60819325e-02  1.55243665e-01
    1.03957832e-01  1.09575868e-01 -1.32823199e-01  4.36584577e-02
    7.18123838e-02 -5.43889496e-03 -5.26773632e-02 -5.86985946e-02]
  [-2.71198228e-02 -6.23435117e-02  1.38755977e-01  3.25121991e-02
   -1.15525946e-01  4.15737480e-02 -8.05534795e-02  5.81008270e-02
    8.54656026e-02  2.16092113e-02  3.98552865e-02 -2.51412969e-02
    1.39690330e-02  1.26544327e-01 -1.47014380e-01  5.47447577e-02]
  [-3.21531743e-02 -1.05155699e-01  1.15908548e-01  3.37530486e-02
    6.85721040e-02  9.65225920e-02 -2.31505051e-01  1.03021026e-01
    1.00339666e-01  1.64979398e-01  4.27366011e-02 -4.05726917e-02
   -1.38207868e-01  1.26489326e-01 -1.24980733e-01 -4.24873177e-03]
  [ 6.77988678e-02  8.04737061e-02  2.87006143e-02  1.86381578e-01
   -6.08671494e-02  3.60022783e-02  7.46255144e-02  5.72723225e-02
    7.13863736e-03  1.75052032e-01 -1.63479969e-02  4.49365079e-02
    1.90889567e-01 -4.06598970e-02  5.29386215e-02  2.95090093e-03]
  [-4.67586741e-02 -8.11941475e-02  4.68451828e-02  1.24834456e-01
    2.65693236e-02  7.84524828e-02 -2.00368360e-01  2.40917001e-02
    4.25743982e-02  1.13111123e-01 -7.55003020e-02  2.66819540e-02
   -3.27396989e-02 -4.40543965e-02 -6.35352880e-02  1.10909410e-01]
  [-4.81473394e-02 -1.84794724e-01  1.34803250e-01 -3.75314616e-02
   -1.03004642e-01  8.53900313e-02 -3.56532842e-01  3.27669531e-02
    1.78285077e-01  7.16156811e-02 -5.29594012e-02  3.75847928e-02
   -7.65547603e-02  4.19707876e-03  7.37553975e-03  2.39301752e-02]]

 [[-6.15414940e-02 -1.72737077e-01  6.10439107e-02  3.87658477e-02
   -6.57414496e-02  8.25616717e-02 -7.98776150e-02  3.59785222e-02
    7.51788244e-02 -1.21612214e-02 -4.24152277e-02  1.18805200e-01
   -6.96514621e-02  1.28469631e-01 -1.34204596e-01 -4.00101319e-02]
  [ 9.99072269e-02 -9.60226804e-02  6.22219816e-02  7.40585327e-02
    1.91351585e-02  5.35699241e-02 -1.94090322e-01 -9.97398868e-02
    1.28202423e-01 -2.64034104e-02  8.19107294e-02 -3.38939601e-03
   -2.08776891e-02 -5.09852096e-02  2.15939316e-03  9.61478520e-03]
  [-3.68058644e-02 -7.84958526e-02  6.96511492e-02 -4.32900637e-02
    1.24258734e-01 -2.32105255e-02 -2.30451256e-01 -1.07253470e-01
    1.27175987e-01 -1.91183649e-02  3.49820480e-02 -5.06882146e-02
   -6.51476979e-02  7.55186304e-02 -1.83391217e-02 -4.79572117e-02]
  [-1.91311985e-02 -2.22387463e-02  1.64013077e-02  1.17422335e-01
    6.56108409e-02  7.99528509e-02 -5.75550832e-03 -6.59664336e-04
    7.18802512e-02  9.47544798e-02  7.26063624e-02  1.60633802e-01
    6.56380178e-03  6.15604706e-02 -7.14796931e-02  8.02507475e-02]
  [-1.07018404e-01 -2.15027437e-01  1.49816528e-01  6.76157176e-02
   -5.29906293e-03  2.17129197e-02 -1.24714620e-01 -8.84604603e-02
    2.65195873e-02 -1.71330627e-02  5.99165373e-02 -6.80111274e-02
    1.68280602e-02 -4.83956635e-02 -9.93580520e-02 -3.57552581e-02]
  [-2.07060128e-01  1.02047867e-03  2.19863746e-02  2.88186520e-02
   -7.89280701e-03 -2.21133038e-01 -2.21410215e-01 -1.04148678e-01
    1.43699855e-01  8.09244961e-02 -1.31762847e-01 -7.03370720e-02
   -1.11014187e-01  9.91288126e-02 -6.32434338e-02  5.78559339e-02]]]